solver_type L2R_L2LOSS_SVC_DUAL
nr_class 2
label 1 -1
nr_feature 119
bias -1
w
-0.3565944396127018 
-0.2451999102905285 
-0.03173612342496319 
0.1966065948069891 
0.1089049645178611 
0.149210544990754 
0.01140841720748454 
0.1690632545264958 
0.3988206156781098 
0.2617494675942962 
-0.06520891884387843 
0 
0 
-0.1402680530521902 
-0.03532334968507061 
-0.06212380339556055 
0.02836893886729449 
-0.1186726467378164 
-0.305482578582818 
-0.07559429639416707 
0.1625237402536892 
-0.08793228773878592 
0.3104919310151701 
-0.2407450924776121 
0.1955718382954545 
-0.35136996613057 
0.2652651821834248 
-0.01604492651273821 
-0.1294781541583323 
0 
-0.07214217145792734 
0.6174758244621777 
-0.5873601363239312 
-0.01319782043638078 
-0.6123260984244345 
-0.08793228773878592 
-0.07559429639416707 
-0.04517325418215701 
0.4930070227362016 
0.2926743413691315 
-0.1108716473061643 
-0.1483756240029525 
0.004602301067231866 
-0.3337859253824319 
-0.3257708427009179 
0.2935084829527574 
0.2516640335402322 
0.001754345532848854 
-0.1714754768104296 
0.1306760363949316 
0.5000502463880478 
0.1496410043331069 
0.2794494667759235 
0.1011432748379177 
0.1841692476007379 
0.09033481359983613 
-0.04483639309119888 
-0.6685697106476249 
0.1210424926989334 
0 
0.4161846799700342 
-0.1908843384096349 
0.2126409704034786 
-0.1103040871741871 
-0.5026398899756281 
-0.1530162488174068 
0.09768154350838372 
0.238063222727131 
-0.8147023887234387 
0.05320914654520464 
0.09772956193937604 
-0.1957653958152344 
-0.1322535181881105 
-0.4798764579779161 
0.1518575439745784 
-0.3708842280719018 
0.04286531406854938 
-0.3661795865521508 
0.04241094140314147 
-0.125538072445894 
0.07829006900221057 
0.04299773458934651 
0.1065854868530669 
0.6396529890690007 
-0.3272522312292139 
-0.8225577889729114 
0.3646831402342937 
-0.4884336057576149 
0 
-0.4232441222018223 
1.678091693179637 
0.3950441894936276 
0.2865283308151704 
-0.3840405955483857 
0.2353868037144194 
0 
0 
0.2996619883816642 
0.8634565224164961 
0.3008488238451759 
-0.1180805069643513 
-0.3045445594403945 
0.1418852804557888 
0.1791240280218873 
-0.7197619450980797 
0 
-0.6847778023446562 
0 
0.006763676119657891 
-0.1220876974423455 
0 
0.001839619154502785 
-0.4431333004621567 
-0.121155675080471 
0 
0 
-0.02524992379306644 
1.569022078906145 
-0.8808480832473957 
