svm_type c_svc
kernel_type rbf
gamma 0.000488281
nr_class 2
total_sv 59
rho 0.854282
label 0 1
nr_sv 23 36
SV
9.376693883689287 1:64.52 2:0 3:84.39 4:13.95 5:1.66 6:0 7:82.99 8:55.51 9:30.88 10:12.87 11:0.74 12:1.81 
7.704297948211768 1:193.2 2:0 3:65.4 4:28.45 5:6.16 6:0.58 7:225.37 8:41.86 9:30.9 10:24.58 11:2.66 12:5.64 
12.74551067219267 1:142.82 2:0 3:69.04 4:24.15 5:6.81 6:0 7:152.97 8:46.82 9:32.53 10:17.56 11:3.1 12:6.14 
22.03225364481757 1:110.85 2:0 3:73.61 4:20.82 5:5.58 6:0.92 7:115.23 8:48.79 9:31.58 10:16.6 11:3.04 12:5 
22.627416998 1:114.53 2:0 3:73.09 4:22.91 5:4 6:0 7:128.64 8:48.07 9:30.43 10:20.08 11:1.42 12:4.83 
22.627416998 1:156.75 2:0 3:68.95 4:24.57 5:6.48 6:0.57 7:175.71 8:46.27 9:29.42 10:21.11 11:3.2 12:6.39 
2.709087395779597 1:92.19 2:0 3:74.81 4:22.62 5:2.57 6:0.51 7:119.85 8:46.43 9:34.07 10:17.86 11:1.65 12:2.93 
2.759666874051747 1:127.89 2:0 3:75 4:18.03 5:6.97 6:0 7:132.59 8:53.49 9:29.77 10:13.02 11:3.72 12:4.87 
22.627416998 1:169.53 2:0 3:68.69 4:26.09 5:5.22 6:0.67 7:191.19 8:45.51 9:32.02 10:19.66 11:2.81 12:5.65 
0.855077452627021 1:146.44 2:0 3:67.27 4:27.5 5:5.23 6:0.23 7:199.94 8:41.94 9:30.27 10:24.32 11:3.47 12:3.36 
17.86884657956331 1:105.4 2:0 3:75.88 4:18.59 5:5.53 6:0 7:121.81 8:56.14 9:25.15 10:15.79 11:2.92 12:4.47 
8.290384546597695 1:176.5 2:0 3:66.84 4:26.74 5:6.42 6:0.8 7:201.12 8:41.14 9:34.53 10:20.12 11:4.2 12:6.46 
22.627416998 1:158.94 2:0 3:68.38 4:25.72 5:5.9 6:0.15 7:175.61 8:44.63 9:31.52 10:20.95 11:2.9 12:5.63 
12.16757061740102 1:77.92 2:0 3:79.49 4:17.13 5:3.37 6:0.28 7:104.29 8:56.25 9:26.25 10:15.31 11:2.19 12:3.32 
12.54029281482878 1:111.99 2:0 3:73.45 4:22.33 5:4.22 6:0.25 7:130.66 8:50.42 9:30.14 10:16.9 11:2.54 12:5.08 
22.627416998 1:115.51 2:0 3:71.6 4:22.2 5:6.21 6:0.24 7:133.89 8:50.13 9:27.85 10:17.77 11:4.24 12:4.07 
22.627416998 1:95.79 2:0 3:74.6 4:21.16 5:4.23 6:0 7:112.24 8:57.32 9:28.05 10:13.41 11:1.22 12:5.75 
0.3378536066831924 1:102.78 2:0 3:73.51 4:22.96 5:3.53 6:0 7:130.29 8:47.97 9:32.22 10:17.9 11:1.91 12:2.78 
1.258884637947331 1:218.26 2:0 3:64.48 4:28.48 5:7.03 6:0.24 7:259.74 8:37.3 9:33.16 10:25 11:4.55 12:4.47 
22.627416998 1:129.94 2:0 3:69.76 4:25.24 5:5 6:0.71 7:155.72 8:50.27 9:28.49 10:17.74 11:3.49 12:5.82 
6.576712651430941 1:222.76 2:0 3:65.93 4:25.68 5:8.4 6:0.49 7:244.58 8:39.07 9:35.25 10:20.49 11:5.19 12:5.18 
22.627416998 1:134.93 2:0 3:66.83 4:28.14 5:5.03 6:0.5 7:150.64 8:45.76 9:26.55 10:24.29 11:3.39 12:5.85 
13.24632968955646 1:107.35 2:0 3:74.15 4:21.41 5:4.44 6:0.52 7:119.64 8:50.59 9:31.47 10:16.18 11:1.76 12:5.03 
-3.190291205858167 1:190.63 2:0 3:59.6 4:34.1 5:6.3 6:0.85 7:220.75 8:39.5 9:28.53 10:26.65 11:5.33 12:3.33 
-5.159877818853789 1:218.35 2:0 3:57.69 4:36.54 5:5.77 6:2.07 7:235.09 8:37.15 9:34.18 10:24.2 11:4.46 12:6.73 
-15.57356123686166 1:132.46 2:0 3:66.05 4:30.88 5:3.07 6:1.06 7:152.11 8:43.37 9:31.26 10:22.75 11:2.62 12:2.24 
-22.627416998 1:118.9 2:0 3:71.04 4:26.07 5:2.9 6:0.3 7:127.51 8:46.28 9:34.88 10:16.53 11:2.31 12:3.82 
-22.627416998 1:166.55 2:0 3:65.63 4:30.35 5:4.02 6:1.08 7:193.65 8:42.63 9:30.3 10:24.24 11:2.83 12:3.88 
-0.112576155656502 1:361.7 2:0 3:54.08 4:36.06 5:9.86 6:1.67 7:354.89 8:33.84 9:29.25 10:29.59 11:7.31 12:5.77 
-2.132079332354021 1:109.57 2:0 3:69.81 4:26.04 5:4.16 6:0.55 7:116.96 8:46.85 9:30.63 10:19.22 11:3.3 12:3.2 
-0.06835527990367764 1:345.05 2:0 3:54.77 4:34.28 5:10.95 6:4.39 7:221.02 8:46.86 9:28.87 10:20.5 11:3.77 12:14.34 
-12.57769347993417 1:146.03 2:0 3:67.45 4:29.63 5:2.92 6:3.75 7:167.15 8:47.03 9:28.39 10:21.82 11:2.75 12:5.6 
-6.361338597334656 1:73.43 2:0 3:78.67 4:19.82 5:1.51 6:0.3 7:83.48 8:56.59 9:26.67 10:15.45 11:1.3 12:0.81 
-0.05064859244548279 1:346.84 2:0 3:55.99 4:35.24 5:8.77 6:1.76 7:249.68 8:41.5 9:30.36 10:23.28 11:4.86 12:8.35 
-22.627416998 1:132.73 2:0 3:71.3 4:24.14 5:4.57 6:0.97 7:140.59 8:51.12 9:28.16 10:17.62 11:3.1 12:3.75 
-22.627416998 1:164.14 2:0 3:67.16 4:27.16 5:5.67 6:1.18 7:178.99 8:45.85 9:32.23 10:18.27 11:3.65 12:5.05 
-1.11567286470172 1:239.2 2:0 3:62.86 4:30.55 5:6.59 6:2.97 7:237.76 8:44.87 9:29.81 10:21.26 11:4.06 12:8.5 
-22.627416998 1:110.25 2:0 3:72.56 4:23.17 5:4.27 6:0.4 7:127.35 8:51.1 9:26.97 10:17.76 11:4.17 12:1.72 
-2.74614974886711 1:197.54 2:0 3:63.73 4:31.02 5:5.25 6:1.5 7:210.36 8:39.89 9:32.28 10:23.38 11:4.45 12:3.75 
-0.1262512563286799 1:330.01 2:0 3:55.61 4:34.41 5:9.98 6:4.52 7:168.92 8:53.82 9:26.61 10:15.9 11:3.67 12:17.22 
-0.1074956322723897 1:415.17 2:0 3:53.39 4:34.75 5:11.86 6:2.48 7:248.35 8:38.1 9:36.19 10:19.05 11:6.67 12:9.48 
-0.07637793399758844 1:333.63 2:0 3:54.19 4:36.21 5:9.61 6:1.46 7:305.28 8:33.79 9:30.79 10:29.43 11:5.99 12:6.14 
-0.1380575454133876 1:215.2 2:0 3:57.06 4:39.34 5:3.6 6:0.82 7:56.8 8:73.27 9:9.61 10:13.21 11:3.9 12:3.48 
-0.07992467600652811 1:403.09 2:0 3:52.11 4:37.16 5:10.73 6:2.25 7:294.22 8:36.07 9:36.07 10:19.63 11:8.22 12:11.34 
-4.159718190480664 1:196.95 2:0 3:62.86 4:28.57 5:8.57 6:3.67 7:212.94 8:47.85 9:25 10:19.62 11:7.53 12:7.92 
-17.54238932773721 1:156.09 2:0 3:68.62 4:25.26 5:6.12 6:1.26 7:170.04 8:49.72 9:27.22 10:17.22 11:5.83 12:3.49 
-0.02387247710985527 1:365.21 2:0 3:53.06 4:36.22 5:10.71 6:1.75 7:293.68 8:44.78 9:23.28 10:25.37 11:6.57 12:11.14 
-22.57374263699172 1:108.6 2:0 3:75.85 4:21.93 5:2.23 6:1.54 7:125.19 8:56.49 9:25.96 10:16.09 11:1.46 12:3.36 
-1.570691896489202 1:178.45 2:0 3:66.31 4:26.06 5:7.63 6:1.87 7:186.01 8:45.81 9:29.07 10:19.77 11:5.35 12:5.08 
-22.627416998 1:123.33 2:0 3:71.25 4:23.33 5:5.42 6:2.04 7:149.53 8:52.61 9:25.12 10:17.54 11:4.74 12:4.95 
-14.08509934917091 1:98.15 2:0 3:74.78 4:22.37 5:2.85 6:0.61 7:110.83 8:52.29 9:27.8 10:17.48 11:2.43 12:2.02 
-3.660162819727914 1:62.04 2:0 3:82.43 4:16.62 5:0.95 6:0.22 7:66.66 8:62.02 9:26 10:11.11 11:0.87 12:1.01 
-22.627416998 1:108.15 2:0 3:72.66 4:24.3 5:3.04 6:0.47 7:118.79 8:50.38 9:30.03 10:17.3 11:2.29 12:3.68 
-0.1374223246846328 1:430.59 2:0 3:52.21 4:39.95 5:7.84 6:1.69 7:381.13 8:42.47 9:25.9 10:26.81 11:4.82 12:12.86 
-5.148172463656319 1:91.99 2:0 3:73.16 4:23 5:3.83 6:1.57 7:102.47 8:55.59 9:29.02 10:12.24 11:3.15 12:4.03 
-2.396342022285422 1:239.61 2:0 3:61.93 4:33.25 5:4.82 6:4.14 7:269.71 8:35.46 9:36.57 10:24.65 11:3.32 12:6.96 
-2.801069683840062 1:158.2 2:0 3:67.56 4:28.41 5:4.03 6:3.66 7:164.31 8:45.68 9:31.11 10:21.48 11:1.73 12:7.11 
-6.754428466414967 1:159.24 2:0 3:65.64 4:28.75 5:5.61 6:2.3 7:176.24 8:47.12 9:29.22 10:19.75 11:3.91 12:6.72 
-22.627416998 1:89.48 2:0 3:78.16 4:19.31 5:2.53 6:0.91 7:109.63 8:57 9:26.21 10:14.5 11:2.29 12:3.2 
